第一学期要修多少学分啊:0.25559685,0.16897671,-0.39265996,-0.028270146,-0.49666402,-0.36186227,0.086963855,0.5125093,-0.1687037,-0.13724442,0.08810242,-0.23991358,0.2228847,-0.11416243,0.3520627,0.056776855,0.15919471,-0.2516453,-0.16803871,-0.069625854,0.7386197,-0.22490357,-0.01617929,0.07049472,0.20591429,0.22459042,0.26441744,-0.24115859,0.24139914,0.35050085,-0.37953243,0.48731187,-0.056270003,-0.17030814,0.110143,-0.2740113,-0.5076137,-0.0825517,-0.6430486,-0.10936314,-0.13100243,-0.279335,-0.23246743,0.12514928,-0.21572886,-0.09746785,-0.073953144,0.23813955,-0.14718713,-0.082254276,0.2963527,0.3780997,-0.40757728,0.15744643,-0.14671786,-0.22674759,0.06713228,0.10840358,-0.030805275,0.16377757,-0.34058115,-0.07026256,-0.19386499,-0.006493003,-0.15037657,-0.2515393,0.031508993,-0.21511172,-0.25529957,0.29474357,0.48110914,0.118541285,-0.30243418,0.34970284,-0.46480602,0.03331443,0.22847459,-0.120174445,0.30376643,-0.41378874,0.10162085,-0.3222134,0.083568,0.044101562,-0.2696337,-0.09053528,-0.14585757,-0.42180917,-0.121939,0.27876642,0.106902145,0.22261715,0.30794784,-0.33426955,0.41477352,-0.2201203,0.04253628,0.04441929,0.44356513,-0.07840299,0.06762113,-0.30587214,-0.03759014,-0.4517167,0.0126602845,0.091262855,-0.20212443,0.06926529,-0.08222442,-0.1557527,-0.022838857,0.20329559,0.154309,-0.08603285,0.41195717,0.065799996,0.18173328,-0.13037057,0.20829442,-0.3512173,0.5750641,0.15129016,0.10827301,0.41318613,0.2854446,-0.20352913,0.06101971,-0.30533013,-0.04500401,-0.05601171,0.24817744,-0.46747372,0.18955755,-0.104187146,-0.026814861,0.026990851,-0.3706366,0.33379015,0.018903868,0.042767707,-0.3732833,0.16011414,-0.30219987,-0.18701343,0.23634328,0.039134998,0.024785578,0.268505,-0.300993,0.57122856,-0.17937629,-0.08136957,0.13117257,-0.13340084,-0.32777983,-0.34938028,0.17607985,-0.0010048564,-0.046837855,0.19964199,-0.36204284,-0.034927424,0.0061547183,-0.111419,-0.30835813,0.042502563,-0.14965658,-0.06926643,-0.4028004,0.0025045702,0.09286886,0.23426557,0.5849786,0.090656,0.05523314,0.086212285,-0.14468186,-0.22023512,-0.17204629,-0.0047201407,0.14314172,0.38598213,-0.20884185,-0.13141257,0.25266686,0.06616199,-0.040025707,-0.26722685,0.057411723,0.12176914,-0.07612957,-0.16953573,0.12950757,-0.22779642,0.13583744,0.5536163,0.123462565,-0.37652656,-0.054094143,-0.09337914,0.06461857,-0.30837888,-0.33334327,-0.22593999,-0.109365724,-0.12930143,-0.31311288,0.27297053,-0.09943873,-0.35864958,0.07884472,0.21393903,-0.096567854,-0.514789,-0.2782593,0.65632457,-0.16139528,-0.23840456,0.32674816,0.25358588,0.12264558,-0.04905072,-0.070333,-0.13119714,0.12763558,0.47749832,0.066625,0.038597282,-0.539981,-0.13479842,-0.12799758,-0.103331275,0.054439265,0.240658,-0.61107016,0.01192814,0.46737012,-0.08453985,0.14984243,-0.034256425,0.19341157,0.025523143,0.17031059,-0.17304887,-0.024545,-0.2520267,-0.12607042,-0.19595255,0.20286755,0.14079015,0.0027655703,0.21661659,0.13876686,0.44308713,0.2328687,-0.050841283,-0.08156215,0.16268656,0.169556,-0.254791,-0.110199854,-0.25174928,0.21955328,0.34036472,-0.14264086,-0.07037858,-0.4057686,0.39778313,-0.33976772,-0.121518575,0.036502995,-0.14531043,0.13280013,-0.159206,0.29887128,0.07751415,0.025232146,-0.088794865,0.13782828,0.09671585,0.144025,0.54389113,0.0056931376,0.40886018,-0.036052573,-0.06826858,-0.3860081,0.17084815,0.27264458,-0.10511257,-0.20572986,0.34999016,0.23246229,0.116324,0.25739568,-0.082201995,0.34035674,0.19915628,0.56571543,-0.31956932
本学期的学分修习要求是什么:0.257529,-0.103647575,-0.12139028,-0.339267,-0.3582984,-0.4457207,-0.0016960038,0.64258564,0.16330457,-0.13086972,0.27959758,-0.22318502,0.20570399,-0.102887854,0.03694529,0.05920714,0.24840441,-0.27855843,-0.042047434,-0.103923,0.4209977,-0.53236544,0.087039575,-0.036917426,0.06560729,0.27769473,0.136205,-0.31482217,0.121408,-0.041570723,-0.20012285,0.21465829,-0.13218342,-0.31474057,0.13659586,-0.13044758,-0.58280045,-0.13131785,-0.60641855,-0.043974575,0.043614864,-0.1483957,-0.31731886,0.11305428,-0.19922158,-0.3873487,-0.20550545,0.110824294,0.12386757,-0.12927444,0.16226257,0.20822872,-0.0730623,-0.29555932,0.018933566,-0.21595071,0.09548501,0.15372899,-0.027611284,0.42901942,-0.18176799,-0.006401711,-0.073779285,-0.058496,-0.116804,-0.094298854,-0.012876713,-0.4608007,-0.2810239,0.21280399,0.049528573,0.03628785,-0.2661076,0.25733972,-0.18031815,-0.21107726,0.118747845,-0.073451854,0.15282829,-0.46226615,0.08545116,-0.23256502,-0.21700184,-0.13937214,-0.098441854,-0.17427886,-0.15528671,-0.38157684,-0.36024883,0.2806683,-0.0059404275,-0.05020758,0.060251135,-0.4785817,0.39696714,-0.28923297,0.412077,0.025393853,0.58346903,-0.24780259,0.10484201,-0.40743855,-0.061005987,-0.29248244,0.08042816,0.13786228,-0.12684444,0.035429426,0.08342099,-0.05998015,-0.093224995,0.047082987,0.079696,-0.11715458,0.73673785,0.26904458,0.051913857,-0.07877201,0.26137915,-0.12068216,0.76783454,-0.055491857,0.15525886,0.27444583,0.27656916,0.21541099,0.08875942,-0.06741314,0.06594242,-0.11606842,0.49838883,-0.32770112,0.096563295,-0.068111725,-0.30163386,-0.051829,-0.3560637,0.2916611,-0.014039422,0.18641427,-0.31659958,0.132802,-0.19120729,-0.32854834,0.21033914,-0.16577886,0.03467301,0.33391258,-0.31097957,0.6032223,-0.16291642,-0.030684147,-0.06666314,0.12223871,-0.17518601,-0.5159679,-0.038421154,0.026889997,0.35519242,-0.099922284,-0.37968785,-0.10494357,-0.069129705,-0.06766199,-0.23094828,0.07742171,0.041214142,-0.026171574,-0.21402843,0.11792557,-0.019097278,0.28756428,0.19955644,0.26325172,0.27036658,-0.17185414,-0.02140729,-0.18304072,-0.2764064,-0.05094528,-0.06647314,0.29224613,-0.28124714,-0.29864243,0.33640742,0.37435514,-0.37604642,-0.26012272,-0.016516427,0.2631717,-0.01094956,-0.232309,0.05954928,-0.06259272,0.07221971,0.65713125,-0.075056575,-0.32817468,-0.21786572,0.16224687,0.31934616,-0.21928541,-0.3062847,-0.10897516,-0.2728223,-0.123618424,0.0014131495,0.1315233,-0.024482427,-0.085591726,0.026415566,0.165692,-0.28324774,-0.59432477,-0.44663405,0.571003,-0.03142629,-0.17893085,0.33266523,0.39378542,-0.060584854,0.02483071,-0.072620854,0.026323425,0.29907712,0.38360098,0.030981144,0.06845758,-0.51983786,0.037953712,-0.21325998,-0.052403715,-0.12235828,0.034666147,-0.5693404,0.06376999,0.45393425,0.12325543,0.02871314,-0.13825901,0.124894716,0.24784343,0.2510554,-0.17899545,-0.13345371,-0.29945025,-0.1050867,-0.17280428,0.083342426,-0.0012644337,-0.030707141,0.16140842,-0.030015284,0.2921113,-0.059459288,0.14152399,0.05771157,-0.04507772,0.33732432,-0.29871017,-0.0047920025,-0.11445256,0.25521585,0.24341914,-0.14418998,-0.07460527,-0.24391158,0.2870293,-0.18052228,-0.15129828,-0.0020605666,-0.26536402,0.22629401,0.040513854,0.068213,0.15366843,-0.025814729,0.003652713,0.23336485,0.012632855,0.07052029,0.29363155,0.05993586,0.50456,0.12011,-0.040728424,-0.39692202,0.1325117,0.17745301,0.017277578,-0.34041044,0.15330715,0.019540284,0.009863007,0.43440512,-0.1800684,0.12895629,0.049181435,0.49786276,-0.29217526
每个学期至少要多少学分:0.42827603,0.11390551,-0.28396216,-0.22013734,-0.7084117,-0.405575,-0.11059916,0.7976151,-0.1208385,-0.025563488,0.16849983,-0.21926683,0.11887884,-0.026909001,0.051148165,-0.07428283,0.21074884,0.026560495,-0.100251,-0.24616615,0.5428825,-0.38228115,-0.15784468,-0.012830496,0.387247,0.517825,0.33860448,-0.27345267,0.17990983,0.27177167,-0.32793584,0.5276037,-0.00057349604,-0.11521834,0.2821035,-0.14792617,-0.52890134,-0.03398416,-0.780325,0.17896384,-0.43617687,-0.28685734,-0.43388614,0.14002918,-0.18477184,-0.22154915,-0.37811735,0.14861234,-0.11901167,-0.04864699,0.115574,0.21562117,-0.4654025,0.14597633,-0.08112783,-0.3615315,-0.0807625,0.3269895,0.04639067,0.2687483,-0.08696666,0.0038388323,-0.0016408339,-0.010756004,-0.09502766,-0.025346665,-0.113681495,-0.44513583,-0.04093467,0.14018999,0.38763964,0.19878034,-0.32480517,0.5120433,-0.4515765,0.19000532,0.22827132,-0.171974,0.20348316,-0.4871175,0.19862151,-0.28514084,-0.06971784,0.20030916,-0.42018512,-0.19199331,-0.17814617,-0.6313803,-0.000409166,0.51570505,0.067125835,0.23328768,0.5532568,-0.29164502,0.45847464,-0.17254852,0.063236676,0.18379618,0.5752905,-0.26915315,0.327906,-0.38660634,-0.06781,-0.52182484,0.049117997,0.060261663,0.26026598,0.074113496,-0.025081495,-0.033812165,0.15755667,0.115980506,0.17253785,0.010467996,0.56931067,0.17434718,0.21582933,-0.19739299,-0.11191717,-0.5050052,0.493963,0.20398533,0.09907117,0.2285435,0.1765325,0.06543467,-0.118907325,-0.48768902,-0.07733951,-0.1017915,0.181032,-0.31579235,0.40817833,0.08079917,-0.12521632,-0.037192333,-0.24005365,0.45185885,-0.00019932787,-0.13861667,-0.43556166,0.36186585,-0.46743682,-0.08561283,0.2640985,0.25427017,0.32152733,0.32204452,-0.10401583,0.41166866,-0.23863918,0.08785334,0.1113605,-0.08258382,-0.24752434,-0.495067,0.29061165,-0.009407666,-0.020104168,0.038730834,-0.44018182,-0.089108,-0.21332884,-0.09386233,-0.2498567,0.18686585,-0.07602285,-0.12331733,-0.48369217,0.050301164,-0.04488833,0.17234235,0.558938,0.34000385,0.20713715,0.085108995,-0.044198003,0.05130248,-0.17253117,-0.14853533,-0.15239233,0.32463285,-0.3470727,-0.024415,0.2839375,0.15923716,-0.071767665,-0.29644632,-0.082625486,-0.18073434,0.090535335,-0.10206065,0.17442285,-0.31147602,0.14390166,0.59349936,0.09723767,-0.313531,-0.05800283,-0.35146832,-0.010102491,-0.1955015,-0.30211648,-0.12559734,-0.23803401,-0.20019932,-0.22281216,0.14258967,-0.252449,-0.3301682,0.040614996,0.09215149,0.016851326,-0.64479715,-0.16955751,0.7580581,-0.25486434,-0.23948634,0.34953818,0.5234265,-0.12622117,0.016780997,-0.2804853,-0.19212733,0.34531012,0.24072601,-0.055154175,-0.018430337,-0.24122785,-0.14014149,-0.118087836,-0.30646768,0.02114549,0.19637585,-0.79601616,-0.040445495,0.44980147,0.12471316,0.268001,0.06970034,0.075272664,0.043822333,0.20900033,-0.19165401,0.086639166,-0.33600318,-0.022067988,-0.13735832,0.044462502,-0.035956666,0.19321983,0.13882984,0.29952785,0.27582768,0.029917166,0.21754849,-0.10211717,0.065522335,0.15625417,-0.22142534,-0.3462198,-0.103712834,0.23638083,0.56005836,-0.11342433,-0.30594566,-0.42928103,0.46282348,-0.29513466,-0.4112443,0.041629665,-0.18369617,0.025096491,-0.160937,0.34226882,-0.052217994,-0.13243267,0.12874098,0.11223266,0.03833267,0.2230915,0.575545,-0.08188484,0.12186249,0.02159816,0.048173655,-0.17785366,0.24104883,0.49516633,-0.049770672,-0.13650766,0.22487402,0.17602567,-0.12130817,0.29137996,-0.10090283,0.046089668,0.13507734,0.68521243,-0.3582237
学分制度是什么:0.00908625,-0.104325995,-0.455219,-0.18170375,-0.436834,-0.41410178,-0.20719978,0.4471615,-0.023179494,-0.050653502,0.46957898,-0.29421824,0.3615,-0.17337576,0.146454,0.273504,0.33006227,-0.3718735,-0.015747,-0.14945625,0.5147285,-0.5018065,0.07186425,-0.09508375,0.0073762387,0.32145825,0.0024847463,-0.17002176,0.33940002,0.070869744,-0.20832449,0.19508174,-0.11645275,-0.50860125,-0.17903125,-0.03902475,-0.43700475,-0.17859225,-0.838281,-0.057317,-0.17364275,-0.22503574,-0.265966,0.18111125,-0.28838202,-0.49691528,-0.149041,0.24525347,0.37723875,0.16564825,0.286469,-0.12866326,-0.35350677,-0.04634875,-0.04497525,-0.38681424,-0.012910999,0.22576,-0.0048055016,0.08904976,0.15124126,0.014649253,-0.044411,-0.19911277,-0.026617251,-0.117265,0.037665244,-0.3797935,-0.275764,0.207573,0.254962,0.11888875,-0.45069826,0.08637576,-0.19330075,0.07293975,0.32966423,-0.16100775,0.3952815,-0.22830626,0.33515477,-0.121911995,-0.03253925,-0.075683504,-0.38964525,-0.028940493,-0.20053376,-0.2370975,0.00092275254,0.40761298,0.025210747,0.18256074,0.015029006,-0.22935426,0.27053374,-0.16169026,0.51068676,0.16915299,0.5200787,-0.500836,0.11909725,-0.31650725,-0.16610649,-0.1092495,0.079155,0.05998425,-0.04697325,0.0166265,0.16124326,-0.2238715,-0.163476,0.05434552,0.3606875,-0.064519,0.52250624,0.008093491,0.15532398,0.0070937467,0.328965,-0.260037,0.75743574,-0.059417505,0.34013903,0.41580224,0.46167928,-0.1410165,0.19518599,-0.20982601,-0.13674125,-0.264477,0.3029745,-0.20547399,0.30046624,-0.03739401,0.070369005,-0.26295248,-0.1278615,0.22557351,0.122384004,-0.07987025,-0.23422849,0.41297352,-0.28013825,-0.101823,0.34034026,-0.011913009,0.07345325,0.1821515,-0.21139774,0.26134852,0.046714246,0.35171974,-0.14640877,-0.08553325,-0.27065098,-0.3930425,0.1494205,0.077039994,0.32925826,-0.02198375,-0.32163927,-0.3035515,0.25776976,-0.07601925,-0.16342226,-0.028536746,-0.078980744,0.047771245,-0.186016,-0.13333876,-0.050706998,0.5594202,0.053681746,0.41705477,0.16513574,-0.161087,-0.2779215,-0.42300025,-0.37362674,-0.14732474,-0.173772,0.49272722,-0.15708676,-0.21179399,0.4392802,0.22234826,-0.37043297,-0.34018075,0.15990824,0.29708624,0.0510765,-0.467373,0.10428226,-0.22662377,-0.059857495,0.6971373,-0.112336755,-0.59736073,-0.2695345,0.23499674,0.2663315,-0.29126,-0.23659325,-0.06704625,-0.139669,-0.106694,0.07338875,0.38456327,-0.04075925,-0.23024726,-0.0072550103,0.034452252,0.22059125,-0.9483655,-0.2094965,0.80356956,-0.1522845,-0.08171299,0.32947502,0.38955602,-0.07977825,0.035432246,-0.38710228,-0.13981725,0.2917085,0.25879776,0.08251824,0.24003874,-0.65510523,0.060852,-0.41396996,-0.25626525,-0.234514,-0.12167224,-0.4894355,0.27439347,0.5631005,-0.102791,0.320009,-0.15388176,0.2663805,0.346479,0.11522048,0.0008835015,-0.058348745,-0.3925375,-0.03733299,-0.027219247,0.39841348,-0.06280576,-0.1404805,0.2822045,0.21265125,0.26507723,0.060218997,0.0826395,0.029921994,-0.06988626,0.1842975,-0.31361276,0.005654998,-0.37344024,-0.01269675,0.30697298,-0.19406125,0.123579755,-0.28913426,0.36667174,0.03978449,0.06337151,0.10497427,0.00999926,-0.0107795,0.055083,0.13324827,0.143636,0.37725598,-0.095433,0.2267985,0.069578,0.034552753,0.34747148,0.34434348,0.3001005,-0.262448,0.2408495,-0.19884425,-0.10755573,0.22195673,-0.010316245,-0.49313453,0.14919552,0.15200426,0.025336249,0.2464045,-0.26565424,0.11224825,-0.17970301,0.76983726,-0.2083195
周几是体育课:0.025407001,-0.44327,-0.056178015,-0.21351068,-0.305262,-0.6224887,0.354604,0.7225983,0.079179995,-0.093159,0.5190783,-0.059745003,-0.046861336,-0.54160005,-0.13149068,-0.0033720036,0.336599,-0.040633995,-0.54416364,0.034094334,0.59910333,-0.18857765,-0.23942934,-0.29325768,-0.010485664,-0.03238533,0.16982901,0.22396566,0.19126068,0.025631333,-0.017740667,0.21721934,-0.16307934,-0.653403,-0.07093466,-0.146358,-0.37371334,0.13241567,-0.7342933,-0.218949,0.11751401,-0.47376835,0.06213801,0.021687984,-0.55901796,-0.10073467,-0.33966234,-0.0048126676,0.29423165,0.21303499,0.279489,0.17514502,-0.21106867,-0.301097,-0.25218633,-0.036970336,0.025255667,0.33030632,0.019413,0.15611999,0.27267435,-0.08586633,-0.34897232,-0.117190994,-0.15629266,-0.11590201,-0.49937668,-0.109448664,-0.43488201,0.40307435,0.078733996,0.22124298,-0.511909,0.29374233,-0.30278102,-0.015783003,0.18937433,-0.089062,0.230738,-0.3690717,-0.022776663,-0.30972335,-0.21953432,0.013758004,-0.07742267,-0.41899002,-0.033592004,-0.6243953,-0.07824266,0.07081,-0.057532,0.05984467,0.41642633,-0.26626766,0.26109168,-0.28445435,0.0013593236,0.290008,0.082296334,-0.3438457,-0.05237466,-0.28882265,0.16291767,-0.42578402,0.353024,-0.18340033,-0.24952066,-0.26968133,-0.24745367,-0.08698066,0.035585333,0.17196,0.15547268,-0.11661667,0.38662767,0.27022567,0.045618325,-0.031333327,0.46590367,-0.16102801,0.39290568,0.26337233,0.14735033,0.6099227,0.28809267,0.05053066,-0.27479067,-0.32550666,-0.055965673,0.194655,0.49454436,-0.29195198,0.5966233,0.13433,0.16188833,-0.14349666,-0.25722933,0.330749,0.15209435,-0.5100246,-0.293413,0.31048167,0.011031662,-0.37413397,0.173464,0.015717,-0.243647,0.10239401,-0.15726165,0.41563,0.031980347,0.14803834,0.39213768,-0.20946331,-0.070481,-0.30068198,0.11066166,-0.03244467,0.2994483,-0.13437533,-0.15595366,-0.3394967,0.42351267,-0.111165665,-0.20977734,0.22700967,-0.113702334,-0.20516731,-0.20269267,-0.35287133,0.0066886744,0.25456166,0.16774632,-0.09940967,0.22295399,0.270019,-0.28744134,0.307148,-0.002289335,-0.12139066,-0.398236,0.490146,-0.211636,-0.26374233,-0.02980567,-0.05479933,-0.16975133,-0.09678698,-0.20068568,0.013820671,0.15883934,-0.07584766,-0.008746664,-0.22839467,-0.07922533,0.78102136,0.19992466,-0.38131067,-0.380481,0.21976201,0.6457243,-0.33210298,-0.26990765,-0.29769835,-0.22257833,-0.13647334,0.19183035,0.34550333,-0.056037337,-0.25676236,0.14522968,0.20109467,-0.12704167,-0.302573,-0.38189635,0.23336999,-0.12604167,-0.31554532,0.31123766,0.32107234,-0.0066440105,-0.022975998,-0.24590401,0.016325662,0.40748534,0.67652935,0.40208533,0.10084433,-0.36713234,0.135546,-0.22528,-0.057829335,0.184896,-0.15167233,-0.6916583,-0.115322,0.5626077,-0.103605665,0.060176324,-0.010558327,0.27023733,0.328783,-0.138029,-0.141198,-0.070035316,-0.745306,-0.54434603,-0.213359,-0.033744004,-0.07972934,-0.41894165,0.073923334,0.17932667,0.55744296,0.10104734,-0.09296567,0.024228,-0.03208567,-0.379306,-0.326621,0.039727,-0.100837,0.16296932,0.16984665,-0.039055336,-0.075439334,-0.474576,0.15094501,0.061711337,-0.08424734,0.26995537,-0.21939266,0.17917967,-0.304338,0.10369066,0.199417,-0.012309332,0.218394,0.261295,0.21400933,0.19839267,0.36362496,0.121434,0.492058,0.066684,0.39170766,-0.36296466,0.3193427,0.4953057,-0.027719328,-0.33451566,0.19635133,0.15731834,0.33866933,0.4769043,0.027319992,0.04525067,0.092615,0.39486766,-0.45664534
请问明天有没有数学课:0.5070233,-0.088310994,-0.42138,-0.009402504,-0.41864347,-0.06461051,-0.037727248,0.70577973,-0.111636996,-0.27030277,0.3762135,-0.00072050095,0.45174074,-0.08640824,0.36539724,0.28567702,0.2185945,0.029310249,-0.1848555,-0.23255053,0.2578835,-0.082586,-0.29526377,-0.19568425,0.010144748,0.578267,0.27382773,-0.098088495,0.638,0.103807755,0.018106997,0.046627,-0.19535002,-0.267042,0.07154275,-0.15038326,-0.46422574,0.15399325,-0.830214,-0.2597985,0.013729993,-0.50995076,-0.027377754,0.4450715,-0.51418227,-0.518333,0.021322502,0.0928195,-0.0107637495,0.052476004,0.16474,0.033874243,-0.394966,0.098948,-0.13066351,-0.52731174,0.22715823,-0.36289102,0.0607675,0.024435254,-0.11910224,0.11026774,-0.429241,0.07959275,-0.25074825,-0.1310785,-0.17787951,-0.035031,-0.325183,0.27751577,-0.067252256,0.060074,-0.20202625,0.28004903,-0.5255575,-0.082044,0.073576,0.125765,0.21894574,-0.55804825,0.3234855,-0.5422175,0.102204755,-0.20245498,-0.20567776,-0.4307865,0.23585601,-0.5193285,0.155817,0.230229,0.051204253,0.38221976,-0.01594901,-0.475605,0.61060476,-0.16469474,-0.062376253,-0.1232115,0.49677724,-0.029586248,-0.25273973,-0.18607575,0.18627825,-0.4181675,0.2526185,-0.48550874,0.02537125,0.04145125,-0.08244099,0.1908755,0.010452246,0.41373974,-0.27998298,-0.44373527,0.50552773,-0.20751101,-0.2681965,-0.54177177,0.4720235,-0.16795601,0.26803076,0.078923,0.0422415,0.633683,-0.080785245,0.007856257,-0.27082098,0.09036049,-0.27045625,-0.13985825,0.3758625,-0.31701225,0.42459524,-0.24785173,0.025132254,-0.002240762,-0.016657501,0.15395251,0.21228647,-0.24157149,-0.2152495,0.7127093,-0.359041,-0.37013575,0.3057455,0.1313795,-0.1268475,0.17882475,-0.1680705,0.72032124,0.0236025,0.19131276,-0.20274399,0.07783375,-0.085727245,-0.293498,-0.14872025,0.25411898,-0.03804575,-0.19239075,-0.17177126,0.08692274,-0.088377,-0.320529,-0.25825876,0.2766445,0.050708,-0.48680195,-0.44261625,-0.102083,-0.022701997,0.46194726,0.23146024,-0.203848,0.029892996,0.24343075,-0.535884,0.46541226,-0.17689276,0.0133680105,-0.03589174,0.161234,-0.0003772527,-0.6183045,0.37745148,-0.123474754,-0.09215675,-0.2338955,-0.112513,-0.09563675,-0.152216,-0.116209,-0.49833825,-0.1182755,0.058643002,0.54350996,-0.114883,0.02554674,-0.43088323,-0.16740675,0.160584,-0.3178265,-0.24783775,0.34936774,-0.25720426,0.029516498,-0.33698124,0.2639775,0.18134676,-0.043314002,-0.1322235,0.36608827,0.0026459992,-0.437519,-0.33563876,0.5771848,-0.038349256,0.132843,0.32942224,0.404809,-0.10291453,0.18717474,-0.335454,-0.04448825,-0.24424848,0.22069901,0.4633755,-0.030461244,-0.6679743,0.18138173,-0.013761751,-0.358613,-0.09176351,0.0759435,-0.624338,-0.147967,0.27029625,0.119104,0.22525275,-0.517598,-0.00020350143,-0.13907,-0.324542,-0.09647024,-0.27165025,-0.849977,-0.40234852,-0.43162203,0.1788385,0.12388526,-0.23006974,0.06609675,0.07841875,0.13154475,0.5532453,0.25227523,-0.13008425,-0.39939976,0.235272,-0.47172874,-0.1228625,-0.07905399,0.35813475,0.021716252,-0.27858353,-0.17470925,-0.6161148,0.49351397,0.1086085,-0.3043455,0.16396151,-0.29271522,0.23253725,0.15034598,0.16269626,0.317531,0.2023335,0.039389998,0.41317725,0.47628802,-0.074315496,0.71474075,0.12831101,0.16670626,-0.105332986,0.14152649,-0.023841746,0.46390125,-0.07450599,-0.16452673,-0.24784452,0.0455935,0.04420124,0.1025905,-0.038605742,-0.09840425,0.45469874,0.43680477,0.17774048,-0.43864775
教务处在哪啊？:0.2988252,-0.1342978,-0.3739984,0.0041184006,-0.3270162,-0.18724462,0.039524198,0.3294446,0.15306762,-0.197809,0.5648424,-0.048730195,0.3172512,0.054944597,0.20257664,0.2735778,-0.026628604,-0.13123599,-0.34032822,-0.23907599,0.5039934,-0.0577782,-0.39214537,-0.3127776,0.1508066,0.3941254,0.16818461,-0.16245821,0.354579,0.11887179,-0.038052797,0.28818578,-0.12302439,-0.146517,0.0751348,-0.2902372,-0.1925884,0.1836776,-0.7511862,-0.3452552,-0.0783902,-0.24179462,0.2548736,0.1957032,-0.6620368,-0.2406538,-0.1338052,-0.15379038,-0.1030938,0.2240618,0.0670318,0.54230535,-0.52820635,0.3130358,-0.2674852,-0.38955063,0.24990281,0.33155757,0.0540012,-0.084178194,0.030653607,0.02014,-0.3155964,-0.13725981,-0.30788022,-0.3977244,-0.0643854,0.14265318,-0.50011116,-0.15242259,0.41835722,0.328788,-0.0070285974,-0.1300524,-0.2590078,-0.02962079,0.086804405,0.24710481,0.49773225,-0.6545142,0.2089648,-0.21368401,-0.16573478,-0.250046,-0.1810422,-0.2262048,0.0503128,-0.1088328,0.26367262,-0.0154116005,0.16784701,0.4660144,-0.27238923,-0.3450126,0.5267482,0.0411674,0.022001207,0.032672,0.458855,0.0826882,-0.4600242,-0.4088098,-0.0368738,-0.177325,-0.23743021,-0.025292393,-0.5069984,-0.091287,-0.2802176,0.26433378,-0.3035632,0.007290399,0.16375181,-0.11071861,0.2579016,0.04401481,0.10073481,-0.30707678,0.3007544,-0.0033431917,0.2737312,0.1655594,0.1680966,0.2790318,0.376062,-0.057653397,0.0359466,-0.30240196,-0.24603441,-0.039055802,0.1708768,-0.2829132,0.130292,-0.37101883,-0.113477394,0.145982,-0.2870482,0.094980404,0.2518894,0.049233995,0.075022995,0.4184776,-0.258553,-0.0029474064,0.3200908,-0.33920997,0.083006606,0.22970721,-0.31342322,0.25787082,-0.21663699,-0.18797141,-0.079111,-0.2720936,0.20492859,-0.562707,-0.011078393,-0.051243,0.3689378,-0.26202962,-0.43298182,-0.033354204,0.2993124,0.040570594,0.00615879,0.0430442,-0.4315806,-0.1520198,-0.26934502,-0.28394642,-0.050753005,0.0657404,0.09911381,0.2966546,-0.0213206,0.35674998,-0.42941704,-0.023030829,-0.007143398,0.0898692,-0.08177221,0.37096578,-0.17692319,-0.0061831893,0.15285599,0.017472405,-0.2602886,-0.023178803,-0.23633079,0.116061606,-0.2517888,-0.23469241,-0.12880161,0.11989459,-0.069594994,0.64294803,0.1249568,-0.0026690036,-0.41242498,0.1672534,0.103798196,0.109233,0.038470194,-0.1501948,0.042889588,-0.011894196,-0.34391177,0.22885919,-0.193203,-0.0686376,-0.023942595,0.1607798,-0.26612562,-0.63972884,-0.2468812,0.50801,-0.0913628,-0.1777356,0.51275265,0.26507542,0.12871,0.23172319,-0.3930976,-0.3783604,-0.0368114,0.53725755,0.0866486,-0.09992321,-0.3354654,0.3462862,-0.1375082,-0.42414397,0.20438781,-0.47649345,-0.25599918,-0.2326854,0.534043,-0.1295842,0.22803538,-0.2371242,0.3034894,-0.20573099,-0.12631218,-0.092257395,0.0284284,-0.7266984,0.0661604,-0.4666912,0.0008917943,0.0673244,-0.41032943,0.0862578,0.0100503955,0.390347,0.3026222,0.0476398,0.17854919,-0.1599716,0.40323338,-0.41203398,-0.1032562,-0.42653817,0.29765362,-0.06892079,-0.07090981,0.002851002,-0.298555,0.08855721,-0.3528842,-0.13541,-0.2195472,-0.49820098,0.3876044,-0.2423152,0.1275464,0.16204742,0.65377676,0.124523,0.1498068,0.21858601,0.3730606,0.3175094,0.1683254,0.415939,-0.1606094,0.21836281,-0.4473176,0.41437164,0.0956882,-0.2835524,-0.3862808,-0.009490398,0.50017375,-0.3406676,-0.056718607,-0.0702872,-0.07450579,0.218891,0.1554102,-0.2103432
